\data\
ngram 1= 53


\1-grams:
-1.000000 <s> -0.300000
-0.900000 </s> 0.000000
-2.500000 <unk>
-1.100000 bir -0.100000
-1.150000 ve -0.100000
-1.200000 bu -0.100000
-1.250000 o -0.100000
-1.300000 da -0.100000
-1.300000 de -0.100000
-1.350000 için -0.100000
-1.350000 ile -0.100000
-1.400000 ama -0.100000
-1.400000 daha -0.100000
-1.450000 en -0.100000
-1.450000 her -0.100000
-1.500000 ilk -0.100000
-1.500000 son -0.100000
-1.550000 var -0.100000
-1.550000 yeni -0.100000
-1.600000 ne -0.100000
-1.600000 yıl -0.100000
-1.650000 yer -0.100000
-1.650000 iyi -0.100000
-1.700000 dedi -0.100000
-1.700000 olarak -0.100000
-1.750000 gibi -0.100000
-1.750000 kadar -0.100000
-1.800000 değil -0.100000
-1.800000 önce -0.100000
-1.800000 sonra -0.100000
-1.850000 göre -0.100000
-1.850000 söyledi -0.100000
-1.850000 büyük -0.100000
-1.850000 küçük -0.100000
-1.900000 çok -0.100000
-1.900000 hatta -0.100000
-1.900000 zaten -0.100000
-1.950000 artık -0.100000
-1.950000 sadece -0.100000
-1.950000 diye -0.100000
-1.950000 ancak -0.100000
-2.000000 başka -0.100000
-2.000000 tamam -0.100000
-2.000000 evet -0.100000
-2.000000 hayır -0.100000
-2.050000 bugün -0.100000
-2.050000 yarın -0.100000
-2.050000 şimdi -0.100000
-2.100000 bazı -0.100000
-2.100000 birçok -0.100000
-2.100000 birkaç -0.100000
-2.100000 yani -0.100000
-2.100000 nasıl -0.100000

\end\
